digraph Tree {
node [shape=box] ;
0 [label="deadlineMonth <= 17.5\ngini = 0.459\nsamples = 281896\nvalue = [181528, 100368]"] ;
1 [label="category <= 850.83\ngini = 0.13\nsamples = 157014\nvalue = [146083, 10931]"] ;
0 -> 1 [labeldistance=2.5, labelangle=45, headlabel="True"] ;
2 [label="goal <= 199.5\ngini = 0.437\nsamples = 23891\nvalue = [16176, 7715]"] ;
1 -> 2 ;
3 [label="category <= 185.5\ngini = 0.179\nsamples = 16709\nvalue = [15048, 1661]"] ;
2 -> 3 ;
4 [label="goal <= 38.5\ngini = 0.461\nsamples = 4610\nvalue = [2949, 1661]"] ;
3 -> 4 ;
5 [label="category <= 33.5\ngini = 0.217\nsamples = 3054\nvalue = [2675, 379]"] ;
4 -> 5 ;
6 [label="goal <= 6.065\ngini = 0.434\nsamples = 1189\nvalue = [810, 379]"] ;
5 -> 6 ;
7 [label="category <= 6.5\ngini = 0.13\nsamples = 761\nvalue = [708, 53]"] ;
6 -> 7 ;
8 [label="goal <= 0.5\ngini = 0.439\nsamples = 163\nvalue = [110, 53]"] ;
7 -> 8 ;
9 [label="gini = 0.0\nsamples = 91\nvalue = [91, 0]"] ;
8 -> 9 ;
10 [label="category <= 1.5\ngini = 0.389\nsamples = 72\nvalue = [19, 53]"] ;
8 -> 10 ;
11 [label="gini = 0.292\nsamples = 45\nvalue = [8, 37]"] ;
10 -> 11 ;
12 [label="gini = 0.483\nsamples = 27\nvalue = [11, 16]"] ;
10 -> 12 ;
13 [label="gini = 0.0\nsamples = 598\nvalue = [598, 0]"] ;
7 -> 13 ;
14 [label="goal <= 19.5\ngini = 0.363\nsamples = 428\nvalue = [102, 326]"] ;
6 -> 14 ;
15 [label="category <= 19.0\ngini = 0.455\nsamples = 191\nvalue = [67, 124]"] ;
14 -> 15 ;
16 [label="country <= 11.5\ngini = 0.349\nsamples = 160\nvalue = [36, 124]"] ;
15 -> 16 ;
17 [label="gini = 0.317\nsamples = 152\nvalue = [30, 122]"] ;
16 -> 17 ;
18 [label="gini = 0.375\nsamples = 8\nvalue = [6, 2]"] ;
16 -> 18 ;
19 [label="gini = 0.0\nsamples = 31\nvalue = [31, 0]"] ;
15 -> 19 ;
20 [label="goal <= 34.185\ngini = 0.252\nsamples = 237\nvalue = [35, 202]"] ;
14 -> 20 ;
21 [label="deadlineMonth <= 9.5\ngini = 0.22\nsamples = 207\nvalue = [26, 181]"] ;
20 -> 21 ;
22 [label="gini = 0.197\nsamples = 199\nvalue = [22, 177]"] ;
21 -> 22 ;
23 [label="gini = 0.5\nsamples = 8\nvalue = [4, 4]"] ;
21 -> 23 ;
24 [label="category <= 15.5\ngini = 0.42\nsamples = 30\nvalue = [9, 21]"] ;
20 -> 24 ;
25 [label="gini = 0.498\nsamples = 15\nvalue = [8, 7]"] ;
24 -> 25 ;
26 [label="gini = 0.124\nsamples = 15\nvalue = [1, 14]"] ;
24 -> 26 ;
27 [label="gini = 0.0\nsamples = 1865\nvalue = [1865, 0]"] ;
5 -> 27 ;
28 [label="goal <= 99.06\ngini = 0.29\nsamples = 1556\nvalue = [274, 1282]"] ;
4 -> 28 ;
29 [label="category <= 99.5\ngini = 0.476\nsamples = 606\nvalue = [236, 370]"] ;
28 -> 29 ;
30 [label="category <= 86.5\ngini = 0.135\nsamples = 399\nvalue = [29, 370]"] ;
29 -> 30 ;
31 [label="goal <= 50.5\ngini = 0.124\nsamples = 393\nvalue = [26, 367]"] ;
30 -> 31 ;
32 [label="category <= 55.0\ngini = 0.225\nsamples = 124\nvalue = [16, 108]"] ;
31 -> 32 ;
33 [label="gini = 0.18\nsamples = 120\nvalue = [12, 108]"] ;
32 -> 33 ;
34 [label="gini = 0.0\nsamples = 4\nvalue = [4, 0]"] ;
32 -> 34 ;
35 [label="deadlineMonth <= 16.5\ngini = 0.072\nsamples = 269\nvalue = [10, 259]"] ;
31 -> 35 ;
36 [label="gini = 0.065\nsamples = 268\nvalue = [9, 259]"] ;
35 -> 36 ;
37 [label="gini = 0.0\nsamples = 1\nvalue = [1, 0]"] ;
35 -> 37 ;
38 [label="goal <= 81.0\ngini = 0.5\nsamples = 6\nvalue = [3, 3]"] ;
30 -> 38 ;
39 [label="gini = 0.0\nsamples = 3\nvalue = [3, 0]"] ;
38 -> 39 ;
40 [label="gini = 0.0\nsamples = 3\nvalue = [0, 3]"] ;
38 -> 40 ;
41 [label="gini = 0.0\nsamples = 207\nvalue = [207, 0]"] ;
29 -> 41 ;
42 [label="category <= 176.0\ngini = 0.077\nsamples = 950\nvalue = [38, 912]"] ;
28 -> 42 ;
43 [label="deadlineMonth <= 4.5\ngini = 0.07\nsamples = 937\nvalue = [34, 903]"] ;
42 -> 43 ;
44 [label="category <= 151.5\ngini = 0.146\nsamples = 252\nvalue = [20, 232]"] ;
43 -> 44 ;
45 [label="launchedMonth <= 1.5\ngini = 0.14\nsamples = 251\nvalue = [19, 232]"] ;
44 -> 45 ;
46 [label="gini = 0.5\nsamples = 4\nvalue = [2, 2]"] ;
45 -> 46 ;
47 [label="gini = 0.128\nsamples = 247\nvalue = [17, 230]"] ;
45 -> 47 ;
48 [label="gini = 0.0\nsamples = 1\nvalue = [1, 0]"] ;
44 -> 48 ;
49 [label="category <= 2.0\ngini = 0.04\nsamples = 685\nvalue = [14, 671]"] ;
43 -> 49 ;
50 [label="country <= 11.5\ngini = 0.245\nsamples = 21\nvalue = [3, 18]"] ;
49 -> 50 ;
51 [label="gini = 0.18\nsamples = 20\nvalue = [2, 18]"] ;
50 -> 51 ;
52 [label="gini = 0.0\nsamples = 1\nvalue = [1, 0]"] ;
50 -> 52 ;
53 [label="category <= 149.5\ngini = 0.033\nsamples = 664\nvalue = [11, 653]"] ;
49 -> 53 ;
54 [label="gini = 0.015\nsamples = 535\nvalue = [4, 531]"] ;
53 -> 54 ;
55 [label="gini = 0.103\nsamples = 129\nvalue = [7, 122]"] ;
53 -> 55 ;
56 [label="goal <= 167.5\ngini = 0.426\nsamples = 13\nvalue = [4, 9]"] ;
42 -> 56 ;
57 [label="gini = 0.0\nsamples = 4\nvalue = [4, 0]"] ;
56 -> 57 ;
58 [label="gini = 0.0\nsamples = 9\nvalue = [0, 9]"] ;
56 -> 58 ;
59 [label="gini = 0.0\nsamples = 12099\nvalue = [12099, 0]"] ;
3 -> 59 ;
60 [label="goal <= 298.5\ngini = 0.265\nsamples = 7182\nvalue = [1128, 6054]"] ;
2 -> 60 ;
61 [label="category <= 289.5\ngini = 0.489\nsamples = 1624\nvalue = [691, 933]"] ;
60 -> 61 ;
62 [label="deadlineMonth <= 2.5\ngini = 0.045\nsamples = 955\nvalue = [22, 933]"] ;
61 -> 62 ;
63 [label="name <= 11.5\ngini = 0.234\nsamples = 37\nvalue = [5, 32]"] ;
62 -> 63 ;
64 [label="category <= 15.5\ngini = 0.121\nsamples = 31\nvalue = [2, 29]"] ;
63 -> 64 ;
65 [label="gini = 0.0\nsamples = 1\nvalue = [1, 0]"] ;
64 -> 65 ;
66 [label="goal <= 202.5\ngini = 0.064\nsamples = 30\nvalue = [1, 29]"] ;
64 -> 66 ;
67 [label="country <= 6.5\ngini = 0.219\nsamples = 8\nvalue = [1, 7]"] ;
66 -> 67 ;
68 [label="gini = 0.444\nsamples = 3\nvalue = [1, 2]"] ;
67 -> 68 ;
69 [label="gini = 0.0\nsamples = 5\nvalue = [0, 5]"] ;
67 -> 69 ;
70 [label="gini = 0.0\nsamples = 22\nvalue = [0, 22]"] ;
66 -> 70 ;
71 [label="goal <= 225.0\ngini = 0.5\nsamples = 6\nvalue = [3, 3]"] ;
63 -> 71 ;
72 [label="gini = 0.0\nsamples = 2\nvalue = [0, 2]"] ;
71 -> 72 ;
73 [label="backers <= 6.5\ngini = 0.375\nsamples = 4\nvalue = [3, 1]"] ;
71 -> 73 ;
74 [label="gini = 0.0\nsamples = 2\nvalue = [2, 0]"] ;
73 -> 74 ;
75 [label="backers <= 8.5\ngini = 0.5\nsamples = 2\nvalue = [1, 1]"] ;
73 -> 75 ;
76 [label="gini = 0.0\nsamples = 1\nvalue = [0, 1]"] ;
75 -> 76 ;
77 [label="gini = 0.0\nsamples = 1\nvalue = [1, 0]"] ;
75 -> 77 ;
78 [label="category <= 277.5\ngini = 0.036\nsamples = 918\nvalue = [17, 901]"] ;
62 -> 78 ;
79 [label="category <= 9.0\ngini = 0.034\nsamples = 916\nvalue = [16, 900]"] ;
78 -> 79 ;
80 [label="category <= 6.5\ngini = 0.231\nsamples = 15\nvalue = [2, 13]"] ;
79 -> 80 ;
81 [label="backers <= 8.5\ngini = 0.133\nsamples = 14\nvalue = [1, 13]"] ;
80 -> 81 ;
82 [label="gini = 0.0\nsamples = 10\nvalue = [0, 10]"] ;
81 -> 82 ;
83 [label="gini = 0.375\nsamples = 4\nvalue = [1, 3]"] ;
81 -> 83 ;
84 [label="gini = 0.0\nsamples = 1\nvalue = [1, 0]"] ;
80 -> 84 ;
85 [label="goal <= 208.5\ngini = 0.031\nsamples = 901\nvalue = [14, 887]"] ;
79 -> 85 ;
86 [label="category <= 212.5\ngini = 0.081\nsamples = 166\nvalue = [7, 159]"] ;
85 -> 86 ;
87 [label="gini = 0.048\nsamples = 163\nvalue = [4, 159]"] ;
86 -> 87 ;
88 [label="gini = 0.0\nsamples = 3\nvalue = [3, 0]"] ;
86 -> 88 ;
89 [label="country <= 1.5\ngini = 0.019\nsamples = 735\nvalue = [7, 728]"] ;
85 -> 89 ;
90 [label="gini = 0.094\nsamples = 61\nvalue = [3, 58]"] ;
89 -> 90 ;
91 [label="gini = 0.012\nsamples = 674\nvalue = [4, 670]"] ;
89 -> 91 ;
92 [label="backers <= 3.0\ngini = 0.5\nsamples = 2\nvalue = [1, 1]"] ;
78 -> 92 ;
93 [label="gini = 0.0\nsamples = 1\nvalue = [1, 0]"] ;
92 -> 93 ;
94 [label="gini = 0.0\nsamples = 1\nvalue = [0, 1]"] ;
92 -> 94 ;
95 [label="gini = 0.0\nsamples = 669\nvalue = [669, 0]"] ;
61 -> 95 ;
96 [label="goal <= 399.5\ngini = 0.145\nsamples = 5558\nvalue = [437, 5121]"] ;
60 -> 96 ;
97 [label="category <= 397.5\ngini = 0.332\nsamples = 1334\nvalue = [280, 1054]"] ;
96 -> 97 ;
98 [label="category <= 3.0\ngini = 0.019\nsamples = 1064\nvalue = [10, 1054]"] ;
97 -> 98 ;
99 [label="deadlineMonth <= 14.5\ngini = 0.18\nsamples = 10\nvalue = [1, 9]"] ;
98 -> 99 ;
100 [label="gini = 0.0\nsamples = 9\nvalue = [0, 9]"] ;
99 -> 100 ;
101 [label="gini = 0.0\nsamples = 1\nvalue = [1, 0]"] ;
99 -> 101 ;
102 [label="country <= 9.5\ngini = 0.017\nsamples = 1054\nvalue = [9, 1045]"] ;
98 -> 102 ;
103 [label="deadlineMonth <= 5.5\ngini = 0.01\nsamples = 825\nvalue = [4, 821]"] ;
102 -> 103 ;
104 [label="goal <= 312.0\ngini = 0.042\nsamples = 94\nvalue = [2, 92]"] ;
103 -> 104 ;
105 [label="gini = 0.097\nsamples = 39\nvalue = [2, 37]"] ;
104 -> 105 ;
106 [label="gini = 0.0\nsamples = 55\nvalue = [0, 55]"] ;
104 -> 106 ;
107 [label="category <= 170.0\ngini = 0.005\nsamples = 731\nvalue = [2, 729]"] ;
103 -> 107 ;
108 [label="gini = 0.037\nsamples = 106\nvalue = [2, 104]"] ;
107 -> 108 ;
109 [label="gini = 0.0\nsamples = 625\nvalue = [0, 625]"] ;
107 -> 109 ;
110 [label="goal <= 350.28\ngini = 0.043\nsamples = 229\nvalue = [5, 224]"] ;
102 -> 110 ;
111 [label="backers <= 11.5\ngini = 0.07\nsamples = 138\nvalue = [5, 133]"] ;
110 -> 111 ;
112 [label="gini = 0.111\nsamples = 85\nvalue = [5, 80]"] ;
111 -> 112 ;
113 [label="gini = 0.0\nsamples = 53\nvalue = [0, 53]"] ;
111 -> 113 ;
114 [label="gini = 0.0\nsamples = 91\nvalue = [0, 91]"] ;
110 -> 114 ;
115 [label="gini = 0.0\nsamples = 270\nvalue = [270, 0]"] ;
97 -> 115 ;
116 [label="deadlineMonth <= 0.5\ngini = 0.072\nsamples = 4224\nvalue = [157, 4067]"] ;
96 -> 116 ;
117 [label="goal <= 897.0\ngini = 0.1\nsamples = 19\nvalue = [18, 1]"] ;
116 -> 117 ;
118 [label="gini = 0.0\nsamples = 12\nvalue = [12, 0]"] ;
117 -> 118 ;
119 [label="goal <= 962.5\ngini = 0.245\nsamples = 7\nvalue = [6, 1]"] ;
117 -> 119 ;
120 [label="gini = 0.0\nsamples = 1\nvalue = [0, 1]"] ;
119 -> 120 ;
121 [label="gini = 0.0\nsamples = 6\nvalue = [6, 0]"] ;
119 -> 121 ;
122 [label="category <= 723.5\ngini = 0.064\nsamples = 4205\nvalue = [139, 4066]"] ;
116 -> 122 ;
123 [label="goal <= 475.115\ngini = 0.04\nsamples = 3670\nvalue = [75, 3595]"] ;
122 -> 123 ;
124 [label="category <= 487.5\ngini = 0.138\nsamples = 615\nvalue = [46, 569]"] ;
123 -> 124 ;
125 [label="deadlineMonth <= 1.5\ngini = 0.014\nsamples = 573\nvalue = [4, 569]"] ;
124 -> 125 ;
126 [label="gini = 0.32\nsamples = 5\nvalue = [1, 4]"] ;
125 -> 126 ;
127 [label="gini = 0.011\nsamples = 568\nvalue = [3, 565]"] ;
125 -> 127 ;
128 [label="gini = 0.0\nsamples = 42\nvalue = [42, 0]"] ;
124 -> 128 ;
129 [label="goal <= 4674.0\ngini = 0.019\nsamples = 3055\nvalue = [29, 3026]"] ;
123 -> 129 ;
130 [label="deadlineMonth <= 1.5\ngini = 0.018\nsamples = 3050\nvalue = [27, 3023]"] ;
129 -> 130 ;
131 [label="gini = 0.231\nsamples = 15\nvalue = [2, 13]"] ;
130 -> 131 ;
132 [label="gini = 0.016\nsamples = 3035\nvalue = [25, 3010]"] ;
130 -> 132 ;
133 [label="goal <= 6926.0\ngini = 0.48\nsamples = 5\nvalue = [2, 3]"] ;
129 -> 133 ;
134 [label="gini = 0.0\nsamples = 2\nvalue = [2, 0]"] ;
133 -> 134 ;
135 [label="gini = 0.0\nsamples = 3\nvalue = [0, 3]"] ;
133 -> 135 ;
136 [label="goal <= 708.0\ngini = 0.211\nsamples = 535\nvalue = [64, 471]"] ;
122 -> 136 ;
137 [label="gini = 0.0\nsamples = 60\nvalue = [60, 0]"] ;
136 -> 137 ;
138 [label="deadlineMonth <= 1.5\ngini = 0.017\nsamples = 475\nvalue = [4, 471]"] ;
136 -> 138 ;
139 [label="goal <= 825.0\ngini = 0.5\nsamples = 2\nvalue = [1, 1]"] ;
138 -> 139 ;
140 [label="gini = 0.0\nsamples = 1\nvalue = [1, 0]"] ;
139 -> 140 ;
141 [label="gini = 0.0\nsamples = 1\nvalue = [0, 1]"] ;
139 -> 141 ;
142 [label="goal <= 1684.5\ngini = 0.013\nsamples = 473\nvalue = [3, 470]"] ;
138 -> 142 ;
143 [label="gini = 0.004\nsamples = 462\nvalue = [1, 461]"] ;
142 -> 143 ;
144 [label="gini = 0.298\nsamples = 11\nvalue = [2, 9]"] ;
142 -> 144 ;
145 [label="goal <= 999.5\ngini = 0.047\nsamples = 133123\nvalue = [129907, 3216]"] ;
1 -> 145 ;
146 [label="category <= 975.5\ngini = 0.001\nsamples = 120583\nvalue = [120524, 59]"] ;
145 -> 146 ;
147 [label="goal <= 872.5\ngini = 0.158\nsamples = 669\nvalue = [611, 58]"] ;
146 -> 147 ;
148 [label="gini = 0.0\nsamples = 609\nvalue = [609, 0]"] ;
147 -> 148 ;
149 [label="category <= 972.5\ngini = 0.064\nsamples = 60\nvalue = [2, 58]"] ;
147 -> 149 ;
150 [label="deadlineMonth <= 6.5\ngini = 0.034\nsamples = 58\nvalue = [1, 57]"] ;
149 -> 150 ;
151 [label="deadlineMonth <= 5.5\ngini = 0.32\nsamples = 5\nvalue = [1, 4]"] ;
150 -> 151 ;
152 [label="gini = 0.0\nsamples = 4\nvalue = [0, 4]"] ;
151 -> 152 ;
153 [label="gini = 0.0\nsamples = 1\nvalue = [1, 0]"] ;
151 -> 153 ;
154 [label="gini = 0.0\nsamples = 53\nvalue = [0, 53]"] ;
150 -> 154 ;
155 [label="goal <= 940.0\ngini = 0.5\nsamples = 2\nvalue = [1, 1]"] ;
149 -> 155 ;
156 [label="gini = 0.0\nsamples = 1\nvalue = [1, 0]"] ;
155 -> 156 ;
157 [label="gini = 0.0\nsamples = 1\nvalue = [0, 1]"] ;
155 -> 157 ;
158 [label="category <= 992.5\ngini = 0.0\nsamples = 119914\nvalue = [119913, 1]"] ;
146 -> 158 ;
159 [label="goal <= 702.5\ngini = 0.059\nsamples = 33\nvalue = [32, 1]"] ;
158 -> 159 ;
160 [label="gini = 0.0\nsamples = 32\nvalue = [32, 0]"] ;
159 -> 160 ;
161 [label="gini = 0.0\nsamples = 1\nvalue = [0, 1]"] ;
159 -> 161 ;
162 [label="gini = 0.0\nsamples = 119881\nvalue = [119881, 0]"] ;
158 -> 162 ;
163 [label="category <= 2982.5\ngini = 0.377\nsamples = 12540\nvalue = [9383, 3157]"] ;
145 -> 163 ;
164 [label="deadlineMonth <= 0.5\ngini = 0.343\nsamples = 3094\nvalue = [680, 2414]"] ;
163 -> 164 ;
165 [label="country <= 4.5\ngini = 0.094\nsamples = 443\nvalue = [421, 22]"] ;
164 -> 165 ;
166 [label="backers <= 3.5\ngini = 0.22\nsamples = 167\nvalue = [146, 21]"] ;
165 -> 166 ;
167 [label="gini = 0.0\nsamples = 73\nvalue = [73, 0]"] ;
166 -> 167 ;
168 [label="goal <= 1826.0\ngini = 0.347\nsamples = 94\nvalue = [73, 21]"] ;
166 -> 168 ;
169 [label="goal <= 1065.5\ngini = 0.175\nsamples = 31\nvalue = [28, 3]"] ;
168 -> 169 ;
170 [label="country <= 2.5\ngini = 0.5\nsamples = 2\nvalue = [1, 1]"] ;
169 -> 170 ;
171 [label="gini = 0.0\nsamples = 1\nvalue = [1, 0]"] ;
170 -> 171 ;
172 [label="gini = 0.0\nsamples = 1\nvalue = [0, 1]"] ;
170 -> 172 ;
173 [label="name <= 8.0\ngini = 0.128\nsamples = 29\nvalue = [27, 2]"] ;
169 -> 173 ;
174 [label="gini = 0.26\nsamples = 13\nvalue = [11, 2]"] ;
173 -> 174 ;
175 [label="gini = 0.0\nsamples = 16\nvalue = [16, 0]"] ;
173 -> 175 ;
176 [label="goal <= 2562.5\ngini = 0.408\nsamples = 63\nvalue = [45, 18]"] ;
168 -> 176 ;
177 [label="goal <= 2236.03\ngini = 0.489\nsamples = 33\nvalue = [19, 14]"] ;
176 -> 177 ;
178 [label="gini = 0.408\nsamples = 21\nvalue = [15, 6]"] ;
177 -> 178 ;
179 [label="gini = 0.444\nsamples = 12\nvalue = [4, 8]"] ;
177 -> 179 ;
180 [label="category <= 2450.0\ngini = 0.231\nsamples = 30\nvalue = [26, 4]"] ;
176 -> 180 ;
181 [label="gini = 0.375\nsamples = 12\nvalue = [9, 3]"] ;
180 -> 181 ;
182 [label="gini = 0.105\nsamples = 18\nvalue = [17, 1]"] ;
180 -> 182 ;
183 [label="goal <= 1206.0\ngini = 0.007\nsamples = 276\nvalue = [275, 1]"] ;
165 -> 183 ;
184 [label="backers <= 6.5\ngini = 0.1\nsamples = 19\nvalue = [18, 1]"] ;
183 -> 184 ;
185 [label="goal <= 1140.0\ngini = 0.5\nsamples = 2\nvalue = [1, 1]"] ;
184 -> 185 ;
186 [label="gini = 0.0\nsamples = 1\nvalue = [1, 0]"] ;
185 -> 186 ;
187 [label="gini = 0.0\nsamples = 1\nvalue = [0, 1]"] ;
185 -> 187 ;
188 [label="gini = 0.0\nsamples = 17\nvalue = [17, 0]"] ;
184 -> 188 ;
189 [label="gini = 0.0\nsamples = 257\nvalue = [257, 0]"] ;
183 -> 189 ;
190 [label="category <= 1897.0\ngini = 0.176\nsamples = 2651\nvalue = [259, 2392]"] ;
164 -> 190 ;
191 [label="launchedMonth <= 0.5\ngini = 0.048\nsamples = 1834\nvalue = [45, 1789]"] ;
190 -> 191 ;
192 [label="gini = 0.0\nsamples = 1\nvalue = [1, 0]"] ;
191 -> 192 ;
193 [label="launchedMonth <= 21.5\ngini = 0.047\nsamples = 1833\nvalue = [44, 1789]"] ;
191 -> 193 ;
194 [label="launchedMonth <= 20.5\ngini = 0.114\nsamples = 297\nvalue = [18, 279]"] ;
193 -> 194 ;
195 [label="deadlineMonth <= 7.5\ngini = 0.103\nsamples = 293\nvalue = [16, 277]"] ;
194 -> 195 ;
196 [label="gini = 0.295\nsamples = 39\nvalue = [7, 32]"] ;
195 -> 196 ;
197 [label="gini = 0.068\nsamples = 254\nvalue = [9, 245]"] ;
195 -> 197 ;
198 [label="goal <= 1628.0\ngini = 0.5\nsamples = 4\nvalue = [2, 2]"] ;
194 -> 198 ;
199 [label="gini = 0.0\nsamples = 2\nvalue = [0, 2]"] ;
198 -> 199 ;
200 [label="gini = 0.0\nsamples = 2\nvalue = [2, 0]"] ;
198 -> 200 ;
201 [label="goal <= 4637.5\ngini = 0.033\nsamples = 1536\nvalue = [26, 1510]"] ;
193 -> 201 ;
202 [label="category <= 1743.5\ngini = 0.032\nsamples = 1535\nvalue = [25, 1510]"] ;
201 -> 202 ;
203 [label="gini = 0.028\nsamples = 1501\nvalue = [21, 1480]"] ;
202 -> 203 ;
204 [label="gini = 0.208\nsamples = 34\nvalue = [4, 30]"] ;
202 -> 204 ;
205 [label="gini = 0.0\nsamples = 1\nvalue = [1, 0]"] ;
201 -> 205 ;
206 [label="goal <= 1984.5\ngini = 0.387\nsamples = 817\nvalue = [214, 603]"] ;
190 -> 206 ;
207 [label="category <= 1949.0\ngini = 0.01\nsamples = 204\nvalue = [203, 1]"] ;
206 -> 207 ;
208 [label="goal <= 1472.0\ngini = 0.444\nsamples = 3\nvalue = [2, 1]"] ;
207 -> 208 ;
209 [label="gini = 0.0\nsamples = 2\nvalue = [2, 0]"] ;
208 -> 209 ;
210 [label="gini = 0.0\nsamples = 1\nvalue = [0, 1]"] ;
208 -> 210 ;
211 [label="gini = 0.0\nsamples = 201\nvalue = [201, 0]"] ;
207 -> 211 ;
212 [label="deadlineMonth <= 1.5\ngini = 0.035\nsamples = 613\nvalue = [11, 602]"] ;
206 -> 212 ;
213 [label="goal <= 2600.0\ngini = 0.444\nsamples = 3\nvalue = [1, 2]"] ;
212 -> 213 ;
214 [label="gini = 0.0\nsamples = 2\nvalue = [0, 2]"] ;
213 -> 214 ;
215 [label="gini = 0.0\nsamples = 1\nvalue = [1, 0]"] ;
213 -> 215 ;
216 [label="category <= 2880.0\ngini = 0.032\nsamples = 610\nvalue = [10, 600]"] ;
212 -> 216 ;
217 [label="category <= 2336.0\ngini = 0.029\nsamples = 604\nvalue = [9, 595]"] ;
216 -> 217 ;
218 [label="gini = 0.011\nsamples = 374\nvalue = [2, 372]"] ;
217 -> 218 ;
219 [label="gini = 0.059\nsamples = 230\nvalue = [7, 223]"] ;
217 -> 219 ;
220 [label="goal <= 2692.5\ngini = 0.278\nsamples = 6\nvalue = [1, 5]"] ;
216 -> 220 ;
221 [label="gini = 0.0\nsamples = 1\nvalue = [1, 0]"] ;
220 -> 221 ;
222 [label="gini = 0.0\nsamples = 5\nvalue = [0, 5]"] ;
220 -> 222 ;
223 [label="goal <= 2995.0\ngini = 0.145\nsamples = 9446\nvalue = [8703, 743]"] ;
163 -> 223 ;
224 [label="gini = 0.0\nsamples = 6271\nvalue = [6271, 0]"] ;
223 -> 224 ;
225 [label="category <= 6837.5\ngini = 0.359\nsamples = 3175\nvalue = [2432, 743]"] ;
223 -> 225 ;
226 [label="deadlineMonth <= 0.5\ngini = 0.498\nsamples = 1241\nvalue = [657, 584]"] ;
225 -> 226 ;
227 [label="country <= 5.5\ngini = 0.107\nsamples = 637\nvalue = [601, 36]"] ;
226 -> 227 ;
228 [label="backers <= 4.5\ngini = 0.222\nsamples = 283\nvalue = [247, 36]"] ;
227 -> 228 ;
229 [label="category <= 6700.0\ngini = 0.087\nsamples = 175\nvalue = [167, 8]"] ;
228 -> 229 ;
230 [label="gini = 0.077\nsamples = 174\nvalue = [167, 7]"] ;
229 -> 230 ;
231 [label="gini = 0.0\nsamples = 1\nvalue = [0, 1]"] ;
229 -> 231 ;
232 [label="backers <= 5.5\ngini = 0.384\nsamples = 108\nvalue = [80, 28]"] ;
228 -> 232 ;
233 [label="gini = 0.458\nsamples = 79\nvalue = [51, 28]"] ;
232 -> 233 ;
234 [label="gini = 0.0\nsamples = 29\nvalue = [29, 0]"] ;
232 -> 234 ;
235 [label="gini = 0.0\nsamples = 354\nvalue = [354, 0]"] ;
227 -> 235 ;
236 [label="category <= 4672.5\ngini = 0.168\nsamples = 604\nvalue = [56, 548]"] ;
226 -> 236 ;
237 [label="goal <= 5960.0\ngini = 0.049\nsamples = 356\nvalue = [9, 347]"] ;
236 -> 237 ;
238 [label="launchedMonth <= 6.5\ngini = 0.039\nsamples = 348\nvalue = [7, 341]"] ;
237 -> 238 ;
239 [label="gini = 0.169\nsamples = 43\nvalue = [4, 39]"] ;
238 -> 239 ;
240 [label="gini = 0.019\nsamples = 305\nvalue = [3, 302]"] ;
238 -> 240 ;
241 [label="goal <= 6080.0\ngini = 0.375\nsamples = 8\nvalue = [2, 6]"] ;
237 -> 241 ;
242 [label="gini = 0.0\nsamples = 1\nvalue = [1, 0]"] ;
241 -> 242 ;
243 [label="gini = 0.245\nsamples = 7\nvalue = [1, 6]"] ;
241 -> 243 ;
244 [label="goal <= 4710.0\ngini = 0.307\nsamples = 248\nvalue = [47, 201]"] ;
236 -> 244 ;
245 [label="gini = 0.0\nsamples = 37\nvalue = [37, 0]"] ;
244 -> 245 ;
246 [label="goal <= 11190.5\ngini = 0.09\nsamples = 211\nvalue = [10, 201]"] ;
244 -> 246 ;
247 [label="gini = 0.065\nsamples = 207\nvalue = [7, 200]"] ;
246 -> 247 ;
248 [label="gini = 0.375\nsamples = 4\nvalue = [3, 1]"] ;
246 -> 248 ;
249 [label="goal <= 6993.0\ngini = 0.151\nsamples = 1934\nvalue = [1775, 159]"] ;
225 -> 249 ;
250 [label="gini = 0.0\nsamples = 1111\nvalue = [1111, 0]"] ;
249 -> 250 ;
251 [label="category <= 23750.0\ngini = 0.312\nsamples = 823\nvalue = [664, 159]"] ;
249 -> 251 ;
252 [label="deadlineMonth <= 2.5\ngini = 0.477\nsamples = 359\nvalue = [218, 141]"] ;
251 -> 252 ;
253 [label="country <= 5.5\ngini = 0.152\nsamples = 181\nvalue = [166, 15]"] ;
252 -> 253 ;
254 [label="gini = 0.302\nsamples = 81\nvalue = [66, 15]"] ;
253 -> 254 ;
255 [label="gini = 0.0\nsamples = 100\nvalue = [100, 0]"] ;
253 -> 255 ;
256 [label="category <= 12250.0\ngini = 0.414\nsamples = 178\nvalue = [52, 126]"] ;
252 -> 256 ;
257 [label="gini = 0.25\nsamples = 109\nvalue = [16, 93]"] ;
256 -> 257 ;
258 [label="gini = 0.499\nsamples = 69\nvalue = [36, 33]"] ;
256 -> 258 ;
259 [label="goal <= 29982.5\ngini = 0.075\nsamples = 464\nvalue = [446, 18]"] ;
251 -> 259 ;
260 [label="name <= 13.5\ngini = 0.01\nsamples = 409\nvalue = [407, 2]"] ;
259 -> 260 ;
261 [label="gini = 0.005\nsamples = 405\nvalue = [404, 1]"] ;
260 -> 261 ;
262 [label="gini = 0.375\nsamples = 4\nvalue = [3, 1]"] ;
260 -> 262 ;
263 [label="category <= 48500.0\ngini = 0.413\nsamples = 55\nvalue = [39, 16]"] ;
259 -> 263 ;
264 [label="gini = 0.18\nsamples = 10\nvalue = [1, 9]"] ;
263 -> 264 ;
265 [label="gini = 0.263\nsamples = 45\nvalue = [38, 7]"] ;
263 -> 265 ;
266 [label="category <= 8186.0\ngini = 0.407\nsamples = 124882\nvalue = [35445, 89437]"] ;
0 -> 266 [labeldistance=2.5, labelangle=-45, headlabel="False"] ;
267 [label="goal <= 1999.33\ngini = 0.247\nsamples = 70847\nvalue = [10211, 60636]"] ;
266 -> 267 ;
268 [label="category <= 1951.0\ngini = 0.438\nsamples = 23320\nvalue = [7548, 15772]"] ;
267 -> 268 ;
269 [label="goal <= 499.5\ngini = 0.109\nsamples = 16737\nvalue = [967, 15770]"] ;
268 -> 269 ;
270 [label="category <= 489.5\ngini = 0.386\nsamples = 1563\nvalue = [408, 1155]"] ;
269 -> 270 ;
271 [label="goal <= 198.5\ngini = 0.078\nsamples = 1204\nvalue = [49, 1155]"] ;
270 -> 271 ;
272 [label="category <= 156.0\ngini = 0.316\nsamples = 137\nvalue = [27, 110]"] ;
271 -> 272 ;
273 [label="goal <= 38.5\ngini = 0.052\nsamples = 112\nvalue = [3, 109]"] ;
272 -> 273 ;
274 [label="deadlineMonth <= 28.0\ngini = 0.444\nsamples = 3\nvalue = [1, 2]"] ;
273 -> 274 ;
275 [label="gini = 0.0\nsamples = 2\nvalue = [0, 2]"] ;
274 -> 275 ;
276 [label="gini = 0.0\nsamples = 1\nvalue = [1, 0]"] ;
274 -> 276 ;
277 [label="country <= 3.5\ngini = 0.036\nsamples = 109\nvalue = [2, 107]"] ;
273 -> 277 ;
278 [label="gini = 0.108\nsamples = 35\nvalue = [2, 33]"] ;
277 -> 278 ;
279 [label="gini = 0.0\nsamples = 74\nvalue = [0, 74]"] ;
277 -> 279 ;
280 [label="category <= 195.0\ngini = 0.077\nsamples = 25\nvalue = [24, 1]"] ;
272 -> 280 ;
281 [label="launchedMonth <= 15.5\ngini = 0.444\nsamples = 3\nvalue = [2, 1]"] ;
280 -> 281 ;
282 [label="gini = 0.0\nsamples = 1\nvalue = [0, 1]"] ;
281 -> 282 ;
283 [label="gini = 0.0\nsamples = 2\nvalue = [2, 0]"] ;
281 -> 283 ;
284 [label="gini = 0.0\nsamples = 22\nvalue = [22, 0]"] ;
280 -> 284 ;
285 [label="category <= 397.5\ngini = 0.04\nsamples = 1067\nvalue = [22, 1045]"] ;
271 -> 285 ;
286 [label="goal <= 288.5\ngini = 0.023\nsamples = 927\nvalue = [11, 916]"] ;
285 -> 286 ;
287 [label="category <= 290.0\ngini = 0.059\nsamples = 198\nvalue = [6, 192]"] ;
286 -> 287 ;
288 [label="gini = 0.02\nsamples = 194\nvalue = [2, 192]"] ;
287 -> 288 ;
289 [label="gini = 0.0\nsamples = 4\nvalue = [4, 0]"] ;
287 -> 289 ;
290 [label="category <= 165.5\ngini = 0.014\nsamples = 729\nvalue = [5, 724]"] ;
286 -> 290 ;
291 [label="gini = 0.058\nsamples = 168\nvalue = [5, 163]"] ;
290 -> 291 ;
292 [label="gini = 0.0\nsamples = 561\nvalue = [0, 561]"] ;
290 -> 292 ;
293 [label="goal <= 377.0\ngini = 0.145\nsamples = 140\nvalue = [11, 129]"] ;
285 -> 293 ;
294 [label="gini = 0.0\nsamples = 11\nvalue = [11, 0]"] ;
293 -> 294 ;
295 [label="gini = 0.0\nsamples = 129\nvalue = [0, 129]"] ;
293 -> 295 ;
296 [label="gini = 0.0\nsamples = 359\nvalue = [359, 0]"] ;
270 -> 296 ;
297 [label="goal <= 988.5\ngini = 0.071\nsamples = 15174\nvalue = [559, 14615]"] ;
269 -> 297 ;
298 [label="category <= 979.5\ngini = 0.17\nsamples = 4627\nvalue = [434, 4193]"] ;
297 -> 298 ;
299 [label="category <= 795.0\ngini = 0.029\nsamples = 4255\nvalue = [62, 4193]"] ;
298 -> 299 ;
300 [label="goal <= 507.5\ngini = 0.017\nsamples = 3776\nvalue = [33, 3743]"] ;
299 -> 300 ;
301 [label="category <= 525.0\ngini = 0.107\nsamples = 124\nvalue = [7, 117]"] ;
300 -> 301 ;
302 [label="gini = 0.049\nsamples = 120\nvalue = [3, 117]"] ;
301 -> 302 ;
303 [label="gini = 0.0\nsamples = 4\nvalue = [4, 0]"] ;
301 -> 303 ;
304 [label="category <= 572.5\ngini = 0.014\nsamples = 3652\nvalue = [26, 3626]"] ;
300 -> 304 ;
305 [label="gini = 0.006\nsamples = 2535\nvalue = [8, 2527]"] ;
304 -> 305 ;
306 [label="gini = 0.032\nsamples = 1117\nvalue = [18, 1099]"] ;
304 -> 306 ;
307 [label="goal <= 782.5\ngini = 0.114\nsamples = 479\nvalue = [29, 450]"] ;
299 -> 307 ;
308 [label="gini = 0.0\nsamples = 28\nvalue = [28, 0]"] ;
307 -> 308 ;
309 [label="deadlineMonth <= 72.0\ngini = 0.004\nsamples = 451\nvalue = [1, 450]"] ;
307 -> 309 ;
310 [label="gini = 0.0\nsamples = 449\nvalue = [0, 449]"] ;
309 -> 310 ;
311 [label="gini = 0.5\nsamples = 2\nvalue = [1, 1]"] ;
309 -> 311 ;
312 [label="gini = 0.0\nsamples = 372\nvalue = [372, 0]"] ;
298 -> 312 ;
313 [label="category <= 1722.5\ngini = 0.023\nsamples = 10547\nvalue = [125, 10422]"] ;
297 -> 313 ;
314 [label="category <= 1499.5\ngini = 0.02\nsamples = 10269\nvalue = [103, 10166]"] ;
313 -> 314 ;
315 [label="deadlineMonth <= 18.5\ngini = 0.013\nsamples = 7917\nvalue = [51, 7866]"] ;
314 -> 315 ;
316 [label="category <= 125.0\ngini = 0.042\nsamples = 233\nvalue = [5, 228]"] ;
315 -> 316 ;
317 [label="gini = 0.0\nsamples = 1\nvalue = [1, 0]"] ;
316 -> 317 ;
318 [label="gini = 0.034\nsamples = 232\nvalue = [4, 228]"] ;
316 -> 318 ;
319 [label="name <= 9.5\ngini = 0.012\nsamples = 7684\nvalue = [46, 7638]"] ;
315 -> 319 ;
320 [label="gini = 0.017\nsamples = 4409\nvalue = [37, 4372]"] ;
319 -> 320 ;
321 [label="gini = 0.005\nsamples = 3275\nvalue = [9, 3266]"] ;
319 -> 321 ;
322 [label="goal <= 1495.5\ngini = 0.043\nsamples = 2352\nvalue = [52, 2300]"] ;
314 -> 322 ;
323 [label="gini = 0.0\nsamples = 44\nvalue = [44, 0]"] ;
322 -> 323 ;
324 [label="goal <= 1997.5\ngini = 0.007\nsamples = 2308\nvalue = [8, 2300]"] ;
322 -> 324 ;
325 [label="gini = 0.006\nsamples = 2306\nvalue = [7, 2299]"] ;
324 -> 325 ;
326 [label="gini = 0.5\nsamples = 2\nvalue = [1, 1]"] ;
324 -> 326 ;
327 [label="goal <= 1675.5\ngini = 0.146\nsamples = 278\nvalue = [22, 256]"] ;
313 -> 327 ;
328 [label="gini = 0.0\nsamples = 21\nvalue = [21, 0]"] ;
327 -> 328 ;
329 [label="deadlineMonth <= 20.5\ngini = 0.008\nsamples = 257\nvalue = [1, 256]"] ;
327 -> 329 ;
330 [label="backers <= 11.5\ngini = 0.165\nsamples = 11\nvalue = [1, 10]"] ;
329 -> 330 ;
331 [label="gini = 0.0\nsamples = 9\nvalue = [0, 9]"] ;
330 -> 331 ;
332 [label="gini = 0.5\nsamples = 2\nvalue = [1, 1]"] ;
330 -> 332 ;
333 [label="gini = 0.0\nsamples = 246\nvalue = [0, 246]"] ;
329 -> 333 ;
334 [label="category <= 1976.0\ngini = 0.001\nsamples = 6583\nvalue = [6581, 2]"] ;
268 -> 334 ;
335 [label="goal <= 1492.775\ngini = 0.48\nsamples = 5\nvalue = [3, 2]"] ;
334 -> 335 ;
336 [label="gini = 0.0\nsamples = 3\nvalue = [3, 0]"] ;
335 -> 336 ;
337 [label="gini = 0.0\nsamples = 2\nvalue = [0, 2]"] ;
335 -> 337 ;
338 [label="gini = 0.0\nsamples = 6578\nvalue = [6578, 0]"] ;
334 -> 338 ;
339 [label="goal <= 2997.5\ngini = 0.106\nsamples = 47527\nvalue = [2663, 44864]"] ;
267 -> 339 ;
340 [label="category <= 2988.0\ngini = 0.245\nsamples = 10789\nvalue = [1545, 9244]"] ;
339 -> 340 ;
341 [label="category <= 2799.5\ngini = 0.014\nsamples = 9309\nvalue = [65, 9244]"] ;
340 -> 341 ;
342 [label="launchedMonth <= 5.5\ngini = 0.012\nsamples = 9206\nvalue = [56, 9150]"] ;
341 -> 342 ;
343 [label="deadlineMonth <= 125.5\ngini = 0.047\nsamples = 411\nvalue = [10, 401]"] ;
342 -> 343 ;
344 [label="deadlineMonth <= 74.5\ngini = 0.035\nsamples = 396\nvalue = [7, 389]"] ;
343 -> 344 ;
345 [label="deadlineMonth <= 26.5\ngini = 0.023\nsamples = 351\nvalue = [4, 347]"] ;
344 -> 345 ;
346 [label="gini = 0.073\nsamples = 79\nvalue = [3, 76]"] ;
345 -> 346 ;
347 [label="gini = 0.007\nsamples = 272\nvalue = [1, 271]"] ;
345 -> 347 ;
348 [label="deadlineMonth <= 84.0\ngini = 0.124\nsamples = 45\nvalue = [3, 42]"] ;
344 -> 348 ;
349 [label="gini = 0.337\nsamples = 14\nvalue = [3, 11]"] ;
348 -> 349 ;
350 [label="gini = 0.0\nsamples = 31\nvalue = [0, 31]"] ;
348 -> 350 ;
351 [label="deadlineMonth <= 148.0\ngini = 0.32\nsamples = 15\nvalue = [3, 12]"] ;
343 -> 351 ;
352 [label="name <= 2.5\ngini = 0.48\nsamples = 5\nvalue = [3, 2]"] ;
351 -> 352 ;
353 [label="gini = 0.0\nsamples = 2\nvalue = [0, 2]"] ;
352 -> 353 ;
354 [label="gini = 0.0\nsamples = 3\nvalue = [3, 0]"] ;
352 -> 354 ;
355 [label="gini = 0.0\nsamples = 10\nvalue = [0, 10]"] ;
351 -> 355 ;
356 [label="category <= 2399.995\ngini = 0.01\nsamples = 8795\nvalue = [46, 8749]"] ;
342 -> 356 ;
357 [label="category <= 16.5\ngini = 0.007\nsamples = 6498\nvalue = [22, 6476]"] ;
356 -> 357 ;
358 [label="category <= 12.5\ngini = 0.095\nsamples = 20\nvalue = [1, 19]"] ;
357 -> 358 ;
359 [label="gini = 0.0\nsamples = 19\nvalue = [0, 19]"] ;
358 -> 359 ;
360 [label="gini = 0.0\nsamples = 1\nvalue = [1, 0]"] ;
358 -> 360 ;
361 [label="category <= 1000.5\ngini = 0.006\nsamples = 6478\nvalue = [21, 6457]"] ;
357 -> 361 ;
362 [label="gini = 0.016\nsamples = 1098\nvalue = [9, 1089]"] ;
361 -> 362 ;
363 [label="gini = 0.004\nsamples = 5380\nvalue = [12, 5368]"] ;
361 -> 363 ;
364 [label="goal <= 2380.5\ngini = 0.021\nsamples = 2297\nvalue = [24, 2273]"] ;
356 -> 364 ;
365 [label="gini = 0.0\nsamples = 16\nvalue = [16, 0]"] ;
364 -> 365 ;
366 [label="goal <= 2469.5\ngini = 0.007\nsamples = 2281\nvalue = [8, 2273]"] ;
364 -> 366 ;
367 [label="gini = 0.137\nsamples = 27\nvalue = [2, 25]"] ;
366 -> 367 ;
368 [label="gini = 0.005\nsamples = 2254\nvalue = [6, 2248]"] ;
366 -> 368 ;
369 [label="goal <= 2782.5\ngini = 0.159\nsamples = 103\nvalue = [9, 94]"] ;
341 -> 369 ;
370 [label="gini = 0.0\nsamples = 8\nvalue = [8, 0]"] ;
369 -> 370 ;
371 [label="goal <= 2953.5\ngini = 0.021\nsamples = 95\nvalue = [1, 94]"] ;
369 -> 371 ;
372 [label="gini = 0.0\nsamples = 74\nvalue = [0, 74]"] ;
371 -> 372 ;
373 [label="goal <= 2956.145\ngini = 0.091\nsamples = 21\nvalue = [1, 20]"] ;
371 -> 373 ;
374 [label="category <= 2850.0\ngini = 0.5\nsamples = 2\nvalue = [1, 1]"] ;
373 -> 374 ;
375 [label="gini = 0.0\nsamples = 1\nvalue = [1, 0]"] ;
374 -> 375 ;
376 [label="gini = 0.0\nsamples = 1\nvalue = [0, 1]"] ;
374 -> 376 ;
377 [label="gini = 0.0\nsamples = 19\nvalue = [0, 19]"] ;
373 -> 377 ;
378 [label="gini = 0.0\nsamples = 1480\nvalue = [1480, 0]"] ;
340 -> 378 ;
379 [label="category <= 5797.5\ngini = 0.059\nsamples = 36738\nvalue = [1118, 35620]"] ;
339 -> 379 ;
380 [label="goal <= 3865.275\ngini = 0.03\nsamples = 27824\nvalue = [427, 27397]"] ;
379 -> 380 ;
381 [label="category <= 3875.0\ngini = 0.066\nsamples = 7593\nvalue = [261, 7332]"] ;
380 -> 381 ;
382 [label="deadlineMonth <= 651.5\ngini = 0.009\nsamples = 7365\nvalue = [33, 7332]"] ;
381 -> 382 ;
383 [label="category <= 3644.0\ngini = 0.009\nsamples = 7363\nvalue = [32, 7331]"] ;
382 -> 383 ;
384 [label="category <= 3.0\ngini = 0.008\nsamples = 7286\nvalue = [28, 7258]"] ;
383 -> 384 ;
385 [label="gini = 0.198\nsamples = 9\nvalue = [1, 8]"] ;
384 -> 385 ;
386 [label="gini = 0.007\nsamples = 7277\nvalue = [27, 7250]"] ;
384 -> 386 ;
387 [label="goal <= 3463.0\ngini = 0.098\nsamples = 77\nvalue = [4, 73]"] ;
383 -> 387 ;
388 [label="gini = 0.0\nsamples = 3\nvalue = [3, 0]"] ;
387 -> 388 ;
389 [label="gini = 0.027\nsamples = 74\nvalue = [1, 73]"] ;
387 -> 389 ;
390 [label="deadlineMonth <= 987.0\ngini = 0.5\nsamples = 2\nvalue = [1, 1]"] ;
382 -> 390 ;
391 [label="gini = 0.0\nsamples = 1\nvalue = [1, 0]"] ;
390 -> 391 ;
392 [label="gini = 0.0\nsamples = 1\nvalue = [0, 1]"] ;
390 -> 392 ;
393 [label="gini = 0.0\nsamples = 228\nvalue = [228, 0]"] ;
381 -> 393 ;
394 [label="name <= 12.5\ngini = 0.016\nsamples = 20231\nvalue = [166, 20065]"] ;
380 -> 394 ;
395 [label="goal <= 4908.5\ngini = 0.013\nsamples = 18460\nvalue = [122, 18338]"] ;
394 -> 395 ;
396 [label="category <= 4950.0\ngini = 0.026\nsamples = 4926\nvalue = [65, 4861]"] ;
395 -> 396 ;
397 [label="goal <= 4907.5\ngini = 0.009\nsamples = 4882\nvalue = [21, 4861]"] ;
396 -> 397 ;
398 [label="gini = 0.008\nsamples = 4880\nvalue = [20, 4860]"] ;
397 -> 398 ;
399 [label="gini = 0.5\nsamples = 2\nvalue = [1, 1]"] ;
397 -> 399 ;
400 [label="gini = 0.0\nsamples = 44\nvalue = [44, 0]"] ;
396 -> 400 ;
401 [label="category <= 1.5\ngini = 0.008\nsamples = 13534\nvalue = [57, 13477]"] ;
395 -> 401 ;
402 [label="deadlineMonth <= 42.0\ngini = 0.165\nsamples = 22\nvalue = [2, 20]"] ;
401 -> 402 ;
403 [label="gini = 0.5\nsamples = 2\nvalue = [1, 1]"] ;
402 -> 403 ;
404 [label="gini = 0.095\nsamples = 20\nvalue = [1, 19]"] ;
402 -> 404 ;
405 [label="name <= 5.5\ngini = 0.008\nsamples = 13512\nvalue = [55, 13457]"] ;
401 -> 405 ;
406 [label="gini = 0.018\nsamples = 4327\nvalue = [40, 4287]"] ;
405 -> 406 ;
407 [label="gini = 0.003\nsamples = 9185\nvalue = [15, 9170]"] ;
405 -> 407 ;
408 [label="goal <= 797910.75\ngini = 0.048\nsamples = 1771\nvalue = [44, 1727]"] ;
394 -> 408 ;
409 [label="name <= 13.5\ngini = 0.047\nsamples = 1770\nvalue = [43, 1727]"] ;
408 -> 409 ;
410 [label="goal <= 4392.1\ngini = 0.087\nsamples = 902\nvalue = [41, 861]"] ;
409 -> 410 ;
411 [label="gini = 0.24\nsamples = 79\nvalue = [11, 68]"] ;
410 -> 411 ;
412 [label="gini = 0.07\nsamples = 823\nvalue = [30, 793]"] ;
410 -> 412 ;
413 [label="goal <= 3962.5\ngini = 0.005\nsamples = 868\nvalue = [2, 866]"] ;
409 -> 413 ;
414 [label="gini = 0.172\nsamples = 21\nvalue = [2, 19]"] ;
413 -> 414 ;
415 [label="gini = 0.0\nsamples = 847\nvalue = [0, 847]"] ;
413 -> 415 ;
416 [label="gini = 0.0\nsamples = 1\nvalue = [1, 0]"] ;
408 -> 416 ;
417 [label="goal <= 5878.5\ngini = 0.143\nsamples = 8914\nvalue = [691, 8223]"] ;
379 -> 417 ;
418 [label="goal <= 5818.005\ngini = 0.013\nsamples = 609\nvalue = [605, 4]"] ;
417 -> 418 ;
419 [label="gini = 0.0\nsamples = 600\nvalue = [600, 0]"] ;
418 -> 419 ;
420 [label="category <= 6325.0\ngini = 0.494\nsamples = 9\nvalue = [5, 4]"] ;
418 -> 420 ;
421 [label="gini = 0.0\nsamples = 4\nvalue = [0, 4]"] ;
420 -> 421 ;
422 [label="gini = 0.0\nsamples = 5\nvalue = [5, 0]"] ;
420 -> 422 ;
423 [label="goal <= 5988.5\ngini = 0.02\nsamples = 8305\nvalue = [86, 8219]"] ;
417 -> 423 ;
424 [label="category <= 5950.0\ngini = 0.457\nsamples = 17\nvalue = [6, 11]"] ;
423 -> 424 ;
425 [label="gini = 0.0\nsamples = 11\nvalue = [0, 11]"] ;
424 -> 425 ;
426 [label="gini = 0.0\nsamples = 6\nvalue = [6, 0]"] ;
424 -> 426 ;
427 [label="goal <= 584547.0\ngini = 0.019\nsamples = 8288\nvalue = [80, 8208]"] ;
423 -> 427 ;
428 [label="goal <= 6850.25\ngini = 0.019\nsamples = 8287\nvalue = [79, 8208]"] ;
427 -> 428 ;
429 [label="category <= 6900.0\ngini = 0.044\nsamples = 1613\nvalue = [36, 1577]"] ;
428 -> 429 ;
430 [label="gini = 0.006\nsamples = 1582\nvalue = [5, 1577]"] ;
429 -> 430 ;
431 [label="gini = 0.0\nsamples = 31\nvalue = [31, 0]"] ;
429 -> 431 ;
432 [label="launchedMonth <= 21.5\ngini = 0.013\nsamples = 6674\nvalue = [43, 6631]"] ;
428 -> 432 ;
433 [label="gini = 0.033\nsamples = 1003\nvalue = [17, 986]"] ;
432 -> 433 ;
434 [label="gini = 0.009\nsamples = 5671\nvalue = [26, 5645]"] ;
432 -> 434 ;
435 [label="gini = 0.0\nsamples = 1\nvalue = [1, 0]"] ;
427 -> 435 ;
436 [label="goal <= 8998.5\ngini = 0.498\nsamples = 54035\nvalue = [25234, 28801]"] ;
266 -> 436 ;
437 [label="category <= 8837.5\ngini = 0.024\nsamples = 19430\nvalue = [19193, 237]"] ;
436 -> 437 ;
438 [label="goal <= 7979.0\ngini = 0.485\nsamples = 564\nvalue = [331, 233]"] ;
437 -> 438 ;
439 [label="gini = 0.0\nsamples = 330\nvalue = [330, 0]"] ;
438 -> 439 ;
440 [label="deadlineMonth <= 359.5\ngini = 0.009\nsamples = 234\nvalue = [1, 233]"] ;
438 -> 440 ;
441 [label="gini = 0.0\nsamples = 233\nvalue = [0, 233]"] ;
440 -> 441 ;
442 [label="gini = 0.0\nsamples = 1\nvalue = [1, 0]"] ;
440 -> 442 ;
443 [label="category <= 8917.5\ngini = 0.0\nsamples = 18866\nvalue = [18862, 4]"] ;
437 -> 443 ;
444 [label="goal <= 8642.5\ngini = 0.308\nsamples = 21\nvalue = [17, 4]"] ;
443 -> 444 ;
445 [label="gini = 0.0\nsamples = 17\nvalue = [17, 0]"] ;
444 -> 445 ;
446 [label="gini = 0.0\nsamples = 4\nvalue = [0, 4]"] ;
444 -> 446 ;
447 [label="gini = 0.0\nsamples = 18845\nvalue = [18845, 0]"] ;
443 -> 447 ;
448 [label="category <= 33516.0\ngini = 0.288\nsamples = 34605\nvalue = [6041, 28564]"] ;
436 -> 448 ;
449 [label="category <= 18757.5\ngini = 0.13\nsamples = 24656\nvalue = [1716, 22940]"] ;
448 -> 449 ;
450 [label="goal <= 9980.605\ngini = 0.048\nsamples = 16038\nvalue = [392, 15646]"] ;
449 -> 450 ;
451 [label="category <= 9950.0\ngini = 0.284\nsamples = 684\nvalue = [117, 567]"] ;
450 -> 451 ;
452 [label="deadlineMonth <= 387.0\ngini = 0.01\nsamples = 570\nvalue = [3, 567]"] ;
451 -> 452 ;
453 [label="deadlineMonth <= 28.5\ngini = 0.007\nsamples = 568\nvalue = [2, 566]"] ;
452 -> 453 ;
454 [label="deadlineMonth <= 26.5\ngini = 0.165\nsamples = 11\nvalue = [1, 10]"] ;
453 -> 454 ;
455 [label="gini = 0.0\nsamples = 8\nvalue = [0, 8]"] ;
454 -> 455 ;
456 [label="gini = 0.444\nsamples = 3\nvalue = [1, 2]"] ;
454 -> 456 ;
457 [label="launchedMonth <= 6.5\ngini = 0.004\nsamples = 557\nvalue = [1, 556]"] ;
453 -> 457 ;
458 [label="gini = 0.067\nsamples = 29\nvalue = [1, 28]"] ;
457 -> 458 ;
459 [label="gini = 0.0\nsamples = 528\nvalue = [0, 528]"] ;
457 -> 459 ;
460 [label="name <= 7.0\ngini = 0.5\nsamples = 2\nvalue = [1, 1]"] ;
452 -> 460 ;
461 [label="gini = 0.0\nsamples = 1\nvalue = [0, 1]"] ;
460 -> 461 ;
462 [label="gini = 0.0\nsamples = 1\nvalue = [1, 0]"] ;
460 -> 462 ;
463 [label="gini = 0.0\nsamples = 114\nvalue = [114, 0]"] ;
451 -> 463 ;
464 [label="category <= 14999.5\ngini = 0.035\nsamples = 15354\nvalue = [275, 15079]"] ;
450 -> 464 ;
465 [label="name <= 12.5\ngini = 0.017\nsamples = 10439\nvalue = [91, 10348]"] ;
464 -> 465 ;
466 [label="name <= 4.5\ngini = 0.014\nsamples = 9527\nvalue = [69, 9458]"] ;
465 -> 466 ;
467 [label="name <= 3.5\ngini = 0.033\nsamples = 2204\nvalue = [37, 2167]"] ;
466 -> 467 ;
468 [label="gini = 0.012\nsamples = 1033\nvalue = [6, 1027]"] ;
467 -> 468 ;
469 [label="gini = 0.052\nsamples = 1171\nvalue = [31, 1140]"] ;
467 -> 469 ;
470 [label="deadlineMonth <= 23.5\ngini = 0.009\nsamples = 7323\nvalue = [32, 7291]"] ;
466 -> 470 ;
471 [label="gini = 0.093\nsamples = 41\nvalue = [2, 39]"] ;
470 -> 471 ;
472 [label="gini = 0.008\nsamples = 7282\nvalue = [30, 7252]"] ;
470 -> 472 ;
473 [label="backers <= 2.5\ngini = 0.047\nsamples = 912\nvalue = [22, 890]"] ;
465 -> 473 ;
474 [label="launchedMonth <= 0.5\ngini = 0.152\nsamples = 121\nvalue = [10, 111]"] ;
473 -> 474 ;
475 [label="gini = 0.0\nsamples = 1\nvalue = [1, 0]"] ;
474 -> 475 ;
476 [label="gini = 0.139\nsamples = 120\nvalue = [9, 111]"] ;
474 -> 476 ;
477 [label="deadlineMonth <= 43.5\ngini = 0.03\nsamples = 791\nvalue = [12, 779]"] ;
473 -> 477 ;
478 [label="gini = 0.126\nsamples = 59\nvalue = [4, 55]"] ;
477 -> 478 ;
479 [label="gini = 0.022\nsamples = 732\nvalue = [8, 724]"] ;
477 -> 479 ;
480 [label="goal <= 14964.5\ngini = 0.072\nsamples = 4915\nvalue = [184, 4731]"] ;
464 -> 480 ;
481 [label="gini = 0.0\nsamples = 145\nvalue = [145, 0]"] ;
480 -> 481 ;
482 [label="launchedMonth <= 13.5\ngini = 0.016\nsamples = 4770\nvalue = [39, 4731]"] ;
480 -> 482 ;
483 [label="name <= 12.5\ngini = 0.051\nsamples = 648\nvalue = [17, 631]"] ;
482 -> 483 ;
484 [label="gini = 0.037\nsamples = 589\nvalue = [11, 578]"] ;
483 -> 484 ;
485 [label="gini = 0.183\nsamples = 59\nvalue = [6, 53]"] ;
483 -> 485 ;
486 [label="name <= 4.5\ngini = 0.011\nsamples = 4122\nvalue = [22, 4100]"] ;
482 -> 486 ;
487 [label="gini = 0.024\nsamples = 887\nvalue = [11, 876]"] ;
486 -> 487 ;
488 [label="gini = 0.007\nsamples = 3235\nvalue = [11, 3224]"] ;
486 -> 488 ;
489 [label="goal <= 18933.5\ngini = 0.26\nsamples = 8618\nvalue = [1324, 7294]"] ;
449 -> 489 ;
490 [label="gini = 0.0\nsamples = 1139\nvalue = [1139, 0]"] ;
489 -> 490 ;
491 [label="goal <= 19686.5\ngini = 0.048\nsamples = 7479\nvalue = [185, 7294]"] ;
489 -> 491 ;
492 [label="category <= 19800.0\ngini = 0.471\nsamples = 50\nvalue = [19, 31]"] ;
491 -> 492 ;
493 [label="gini = 0.0\nsamples = 31\nvalue = [0, 31]"] ;
492 -> 493 ;
494 [label="gini = 0.0\nsamples = 19\nvalue = [19, 0]"] ;
492 -> 494 ;
495 [label="category <= 28997.5\ngini = 0.044\nsamples = 7429\nvalue = [166, 7263]"] ;
491 -> 495 ;
496 [label="deadlineMonth <= 124.5\ngini = 0.028\nsamples = 5655\nvalue = [79, 5576]"] ;
495 -> 496 ;
497 [label="category <= 22956.0\ngini = 0.071\nsamples = 999\nvalue = [37, 962]"] ;
496 -> 497 ;
498 [label="gini = 0.035\nsamples = 623\nvalue = [11, 612]"] ;
497 -> 498 ;
499 [label="gini = 0.129\nsamples = 376\nvalue = [26, 350]"] ;
497 -> 499 ;
500 [label="goal <= 23355.0\ngini = 0.018\nsamples = 4656\nvalue = [42, 4614]"] ;
496 -> 500 ;
501 [label="gini = 0.039\nsamples = 1119\nvalue = [22, 1097]"] ;
500 -> 501 ;
502 [label="gini = 0.011\nsamples = 3537\nvalue = [20, 3517]"] ;
500 -> 502 ;
503 [label="goal <= 28915.775\ngini = 0.093\nsamples = 1774\nvalue = [87, 1687]"] ;
495 -> 503 ;
504 [label="gini = 0.0\nsamples = 65\nvalue = [65, 0]"] ;
503 -> 504 ;
505 [label="launchedMonth <= 0.5\ngini = 0.025\nsamples = 1709\nvalue = [22, 1687]"] ;
503 -> 505 ;
506 [label="gini = 0.5\nsamples = 2\nvalue = [1, 1]"] ;
505 -> 506 ;
507 [label="gini = 0.024\nsamples = 1707\nvalue = [21, 1686]"] ;
505 -> 507 ;
508 [label="goal <= 34951.32\ngini = 0.491\nsamples = 9949\nvalue = [4325, 5624]"] ;
448 -> 508 ;
509 [label="category <= 34550.0\ngini = 0.002\nsamples = 3334\nvalue = [3330, 4]"] ;
508 -> 509 ;
510 [label="goal <= 31129.0\ngini = 0.266\nsamples = 19\nvalue = [16, 3]"] ;
509 -> 510 ;
511 [label="gini = 0.0\nsamples = 16\nvalue = [16, 0]"] ;
510 -> 511 ;
512 [label="gini = 0.0\nsamples = 3\nvalue = [0, 3]"] ;
510 -> 512 ;
513 [label="goal <= 30698.0\ngini = 0.001\nsamples = 3315\nvalue = [3314, 1]"] ;
509 -> 513 ;
514 [label="gini = 0.0\nsamples = 3097\nvalue = [3097, 0]"] ;
513 -> 514 ;
515 [label="goal <= 30721.0\ngini = 0.009\nsamples = 218\nvalue = [217, 1]"] ;
513 -> 515 ;
516 [label="gini = 0.0\nsamples = 1\nvalue = [0, 1]"] ;
515 -> 516 ;
517 [label="gini = 0.0\nsamples = 217\nvalue = [217, 0]"] ;
515 -> 517 ;
518 [label="category <= 116500.0\ngini = 0.256\nsamples = 6615\nvalue = [995, 5620]"] ;
508 -> 518 ;
519 [label="category <= 59375.0\ngini = 0.153\nsamples = 5376\nvalue = [450, 4926]"] ;
518 -> 519 ;
520 [label="goal <= 40554.0\ngini = 0.067\nsamples = 3408\nvalue = [119, 3289]"] ;
519 -> 520 ;
521 [label="category <= 42500.0\ngini = 0.178\nsamples = 475\nvalue = [47, 428]"] ;
520 -> 521 ;
522 [label="category <= 39953.5\ngini = 0.018\nsamples = 432\nvalue = [4, 428]"] ;
521 -> 522 ;
523 [label="gini = 0.005\nsamples = 388\nvalue = [1, 387]"] ;
522 -> 523 ;
524 [label="gini = 0.127\nsamples = 44\nvalue = [3, 41]"] ;
522 -> 524 ;
525 [label="gini = 0.0\nsamples = 43\nvalue = [43, 0]"] ;
521 -> 525 ;
526 [label="name <= 12.5\ngini = 0.048\nsamples = 2933\nvalue = [72, 2861]"] ;
520 -> 526 ;
527 [label="goal <= 50149.758\ngini = 0.033\nsamples = 2257\nvalue = [38, 2219]"] ;
526 -> 527 ;
528 [label="gini = 0.068\nsamples = 564\nvalue = [20, 544]"] ;
527 -> 528 ;
529 [label="gini = 0.021\nsamples = 1693\nvalue = [18, 1675]"] ;
527 -> 529 ;
530 [label="goal <= 49290.0\ngini = 0.096\nsamples = 676\nvalue = [34, 642]"] ;
526 -> 530 ;
531 [label="gini = 0.258\nsamples = 79\nvalue = [12, 67]"] ;
530 -> 531 ;
532 [label="gini = 0.071\nsamples = 597\nvalue = [22, 575]"] ;
530 -> 532 ;
533 [label="goal <= 60014.75\ngini = 0.28\nsamples = 1968\nvalue = [331, 1637]"] ;
519 -> 533 ;
534 [label="gini = 0.0\nsamples = 238\nvalue = [238, 0]"] ;
533 -> 534 ;
535 [label="goal <= 74943.5\ngini = 0.102\nsamples = 1730\nvalue = [93, 1637]"] ;
533 -> 535 ;
536 [label="category <= 74500.0\ngini = 0.278\nsamples = 300\nvalue = [50, 250]"] ;
535 -> 536 ;
537 [label="gini = 0.023\nsamples = 253\nvalue = [3, 250]"] ;
536 -> 537 ;
538 [label="gini = 0.0\nsamples = 47\nvalue = [47, 0]"] ;
536 -> 538 ;
539 [label="deadlineMonth <= 465.5\ngini = 0.058\nsamples = 1430\nvalue = [43, 1387]"] ;
535 -> 539 ;
540 [label="gini = 0.141\nsamples = 431\nvalue = [33, 398]"] ;
539 -> 540 ;
541 [label="gini = 0.02\nsamples = 999\nvalue = [10, 989]"] ;
539 -> 541 ;
542 [label="goal <= 124915.0\ngini = 0.493\nsamples = 1239\nvalue = [545, 694]"] ;
518 -> 542 ;
543 [label="goal <= 119827.922\ngini = 0.032\nsamples = 434\nvalue = [427, 7]"] ;
542 -> 543 ;
544 [label="gini = 0.0\nsamples = 412\nvalue = [412, 0]"] ;
543 -> 544 ;
545 [label="category <= 130000.0\ngini = 0.434\nsamples = 22\nvalue = [15, 7]"] ;
543 -> 545 ;
546 [label="gini = 0.0\nsamples = 7\nvalue = [0, 7]"] ;
545 -> 546 ;
547 [label="gini = 0.0\nsamples = 15\nvalue = [15, 0]"] ;
545 -> 547 ;
548 [label="category <= 445000.0\ngini = 0.25\nsamples = 805\nvalue = [118, 687]"] ;
542 -> 548 ;
549 [label="goal <= 150700.0\ngini = 0.142\nsamples = 663\nvalue = [51, 612]"] ;
548 -> 549 ;
550 [label="category <= 145000.0\ngini = 0.46\nsamples = 78\nvalue = [28, 50]"] ;
549 -> 550 ;
551 [label="gini = 0.0\nsamples = 50\nvalue = [0, 50]"] ;
550 -> 551 ;
552 [label="gini = 0.0\nsamples = 28\nvalue = [28, 0]"] ;
550 -> 552 ;
553 [label="category <= 334000.0\ngini = 0.076\nsamples = 585\nvalue = [23, 562]"] ;
549 -> 553 ;
554 [label="gini = 0.045\nsamples = 525\nvalue = [12, 513]"] ;
553 -> 554 ;
555 [label="gini = 0.299\nsamples = 60\nvalue = [11, 49]"] ;
553 -> 555 ;
556 [label="goal <= 472333.5\ngini = 0.498\nsamples = 142\nvalue = [67, 75]"] ;
548 -> 556 ;
557 [label="gini = 0.0\nsamples = 54\nvalue = [54, 0]"] ;
556 -> 557 ;
558 [label="category <= 2250000.0\ngini = 0.252\nsamples = 88\nvalue = [13, 75]"] ;
556 -> 558 ;
559 [label="gini = 0.137\nsamples = 81\nvalue = [6, 75]"] ;
558 -> 559 ;
560 [label="gini = 0.0\nsamples = 7\nvalue = [7, 0]"] ;
558 -> 560 ;
}